<?xml version="1.0"?>
<opencv_storage>
<cascade>
  <stageType>BOOST</stageType>
  <featureType>HAAR</featureType>
  <height>24</height>
  <width>24</width>
  <stageParams>
    <boostType>GAB</boostType>
    <minHitRate>9.9500000476837158e-01</minHitRate>
    <maxFalseAlarm>5.0000000000000000e-01</maxFalseAlarm>
    <weightTrimRate>9.4999999999999996e-01</weightTrimRate>
    <maxDepth>1</maxDepth>
    <maxWeakCount>100</maxWeakCount></stageParams>
  <featureParams>
    <maxCatCount>0</maxCatCount>
    <featSize>1</featSize>
    <mode>BASIC</mode></featureParams>
  <stageNum>9</stageNum>
  <stages>
    <!-- stage 0 -->
    <_>
      <maxWeakCount>6</maxWeakCount>
      <stageThreshold>-1.7215051651000977e+00</stageThreshold>
      <weakClassifiers>
        <_>
          <internalNodes>
            0 -1 24 -3.2341223210096359e-02</internalNodes>
          <leafValues>
            4.5066666603088379e-01 -9.0175437927246094e-01</leafValues></_>
        <_>
          <internalNodes>
            0 -1 0 -7.1947522461414337e-02</internalNodes>
          <leafValues>
            7.1438688039779663e-01 -6.0675668716430664e-01</leafValues></_>
        <_>
          <internalNodes>
            0 -1 10 7.1812490932643414e-03</internalNodes>
          <leafValues>
            -3.4892776608467102e-01 7.0036554336547852e-01</leafValues></_>
        <_>
          <internalNodes>
            0 -1 61 1.6683747526258230e-03</internalNodes>
          <leafValues>
            2.3990283906459808e-01 -9.0856349468231201e-01</leafValues></_>
        <_>
          <internalNodes>
            0 -1 38 -2.7588198427110910e-03</internalNodes>
          <leafValues>
            -8.5883277654647827e-01 2.5008055567741394e-01</leafValues></_>
        <_>
          <internalNodes>
            0 -1 9 -3.0132776126265526e-02</internalNodes>
          <leafValues>
            7.9441666603088379e-01 -3.4070679545402527e-01</leafValues></_></weakClassifiers></_>
    <!-- stage 1 -->
    <_>
      <maxWeakCount>8</maxWeakCount>
      <stageThreshold>-2.2058191299438477e+00</stageThreshold>
      <weakClassifiers>
        <_>
          <internalNodes>
            0 -1 36 -1.5353349968791008e-02</internalNodes>
          <leafValues>
            5.1456308364868164e-01 -8.6802524328231812e-01</leafValues></_>
        <_>
          <internalNodes>
            0 -1 21 -3.4126867540180683e-03</internalNodes>
          <leafValues>
            2.1447034180164337e-01 -8.2735741138458252e-01</leafValues></_>
        <_>
          <internalNodes>
            0 -1 11 1.3686725869774818e-02</internalNodes>
          <leafValues>
            -5.1132857799530029e-01 3.5496780276298523e-01</leafValues></_>
        <_>
          <internalNodes>
            0 -1 23 -3.7545990198850632e-04</internalNodes>
          <leafValues>
            2.4042023718357086e-01 -6.4437007904052734e-01</leafValues></_>
        <_>
          <internalNodes>
            0 -1 31 -2.8012983966618776e-03</internalNodes>
          <leafValues>
            -9.3484020233154297e-01 2.0778074860572815e-01</leafValues></_>
        <_>
          <internalNodes>
            0 -1 18 -3.2459821086376905e-03</internalNodes>
          <leafValues>
            -7.6444089412689209e-01 1.4679127931594849e-01</leafValues></_>
        <_>
          <internalNodes>
            0 -1 55 -2.1376144140958786e-03</internalNodes>
          <leafValues>
            -8.0418121814727783e-01 1.7831420898437500e-01</leafValues></_>
        <_>
          <internalNodes>
            0 -1 49 1.5680851414799690e-02</internalNodes>
          <leafValues>
            1.3881781697273254e-01 -9.6093118190765381e-01</leafValues></_></weakClassifiers></_>
    <!-- stage 2 -->
    <_>
      <maxWeakCount>7</maxWeakCount>
      <stageThreshold>-2.0065360069274902e+00</stageThreshold>
      <weakClassifiers>
        <_>
          <internalNodes>
            0 -1 34 -1.6367357224225998e-02</internalNodes>
          <leafValues>
            4.9655172228813171e-01 -8.5288459062576294e-01</leafValues></_>
        <_>
          <internalNodes>
            0 -1 74 -4.9336422234773636e-03</internalNodes>
          <leafValues>
            4.8744243383407593e-01 -5.9507083892822266e-01</leafValues></_>
        <_>
          <internalNodes>
            0 -1 28 -2.2383343894034624e-03</internalNodes>
          <leafValues>
            2.8624579310417175e-01 -6.8360286951065063e-01</leafValues></_>
        <_>
          <internalNodes>
            0 -1 54 -2.3464509285986423e-04</internalNodes>
          <leafValues>
            2.7797856926918030e-01 -5.7209539413452148e-01</leafValues></_>
        <_>
          <internalNodes>
            0 -1 59 8.1021245568990707e-03</internalNodes>
          <leafValues>
            1.7438444495201111e-01 -8.8317221403121948e-01</leafValues></_>
        <_>
          <internalNodes>
            0 -1 62 5.1663428166648373e-05</internalNodes>
          <leafValues>
            -4.2758229374885559e-01 3.6653611063957214e-01</leafValues></_>
        <_>
          <internalNodes>
            0 -1 60 3.8495282642543316e-03</internalNodes>
          <leafValues>
            2.4889425933361053e-01 -7.1883338689804077e-01</leafValues></_></weakClassifiers></_>
    <!-- stage 3 -->
    <_>
      <maxWeakCount>7</maxWeakCount>
      <stageThreshold>-2.0896379947662354e+00</stageThreshold>
      <weakClassifiers>
        <_>
          <internalNodes>
            0 -1 16 -6.4814351499080658e-03</internalNodes>
          <leafValues>
            5.4228854179382324e-01 -8.0175197124481201e-01</leafValues></_>
        <_>
          <internalNodes>
            0 -1 39 -8.6429845541715622e-03</internalNodes>
          <leafValues>
            3.9399603009223938e-01 -6.4828312397003174e-01</leafValues></_>
        <_>
          <internalNodes>
            0 -1 51 -4.9193610902875662e-04</internalNodes>
          <leafValues>
            -8.6337828636169434e-01 1.8499456346035004e-01</leafValues></_>
        <_>
          <internalNodes>
            0 -1 30 -2.6781227439641953e-02</internalNodes>
          <leafValues>
            -8.7249380350112915e-01 1.5113590657711029e-01</leafValues></_>
        <_>
          <internalNodes>
            0 -1 46 5.2985583897680044e-04</internalNodes>
          <leafValues>
            1.7731699347496033e-01 -8.2538098096847534e-01</leafValues></_>
        <_>
          <internalNodes>
            0 -1 56 -4.9324082210659981e-03</internalNodes>
          <leafValues>
            4.5060780644416809e-01 -3.8847532868385315e-01</leafValues></_>
        <_>
          <internalNodes>
            0 -1 32 -2.8689561877399683e-03</internalNodes>
          <leafValues>
            -7.8233438730239868e-01 2.3812298476696014e-01</leafValues></_></weakClassifiers></_>
    <!-- stage 4 -->
    <_>
      <maxWeakCount>9</maxWeakCount>
      <stageThreshold>-1.7793093919754028e+00</stageThreshold>
      <weakClassifiers>
        <_>
          <internalNodes>
            0 -1 4 -4.7809779644012451e-03</internalNodes>
          <leafValues>
            4.4978165626525879e-01 -8.0943483114242554e-01</leafValues></_>
        <_>
          <internalNodes>
            0 -1 35 -5.0769736990332603e-03</internalNodes>
          <leafValues>
            3.4633535146713257e-01 -6.4313781261444092e-01</leafValues></_>
        <_>
          <internalNodes>
            0 -1 73 -5.6423759087920189e-03</internalNodes>
          <leafValues>
            5.2679461240768433e-01 -3.9437386393547058e-01</leafValues></_>
        <_>
          <internalNodes>
            0 -1 52 1.0019348701462150e-03</internalNodes>
          <leafValues>
            2.1890141069889069e-01 -8.2696771621704102e-01</leafValues></_>
        <_>
          <internalNodes>
            0 -1 41 -7.6001058914698660e-05</internalNodes>
          <leafValues>
            2.6011577248573303e-01 -7.2686284780502319e-01</leafValues></_>
        <_>
          <internalNodes>
            0 -1 57 -4.2403663974255323e-04</internalNodes>
          <leafValues>
            -9.0841645002365112e-01 1.2890443205833435e-01</leafValues></_>
        <_>
          <internalNodes>
            0 -1 44 -2.6268873363733292e-02</internalNodes>
          <leafValues>
            -9.1313695907592773e-01 1.0620793700218201e-01</leafValues></_>
        <_>
          <internalNodes>
            0 -1 66 -8.9869150542654097e-05</internalNodes>
          <leafValues>
            2.7842935919761658e-01 -5.0785225629806519e-01</leafValues></_>
        <_>
          <internalNodes>
            0 -1 8 2.4150006938725710e-03</internalNodes>
          <leafValues>
            1.5081909298896790e-01 -8.9243781566619873e-01</leafValues></_></weakClassifiers></_>
    <!-- stage 5 -->
    <_>
      <maxWeakCount>8</maxWeakCount>
      <stageThreshold>-2.2882263660430908e+00</stageThreshold>
      <weakClassifiers>
        <_>
          <internalNodes>
            0 -1 13 1.8463749438524246e-02</internalNodes>
          <leafValues>
            -8.8318008184432983e-01 5.7581574656069279e-03</leafValues></_>
        <_>
          <internalNodes>
            0 -1 1 3.2798277679830790e-03</internalNodes>
          <leafValues>
            -5.2032214403152466e-01 5.7183992862701416e-01</leafValues></_>
        <_>
          <internalNodes>
            0 -1 53 -4.1219964623451233e-04</internalNodes>
          <leafValues>
            3.2551708817481995e-01 -5.7623308897018433e-01</leafValues></_>
        <_>
          <internalNodes>
            0 -1 27 3.0612852424383163e-03</internalNodes>
          <leafValues>
            -3.6123400926589966e-01 4.7003504633903503e-01</leafValues></_>
        <_>
          <internalNodes>
            0 -1 23 -3.7098428583703935e-04</internalNodes>
          <leafValues>
            2.3299981653690338e-01 -6.6935509443283081e-01</leafValues></_>
        <_>
          <internalNodes>
            0 -1 29 -9.6100792288780212e-02</internalNodes>
          <leafValues>
            -7.7387559413909912e-01 2.1305739879608154e-01</leafValues></_>
        <_>
          <internalNodes>
            0 -1 7 8.3292275667190552e-03</internalNodes>
          <leafValues>
            1.7454177141189575e-01 -8.5988688468933105e-01</leafValues></_>
        <_>
          <internalNodes>
            0 -1 72 -4.5697563327848911e-03</internalNodes>
          <leafValues>
            2.5641638040542603e-01 -5.6785589456558228e-01</leafValues></_></weakClassifiers></_>
    <!-- stage 6 -->
    <_>
      <maxWeakCount>9</maxWeakCount>
      <stageThreshold>-1.7858618497848511e+00</stageThreshold>
      <weakClassifiers>
        <_>
          <internalNodes>
            0 -1 3 -2.2686235606670380e-02</internalNodes>
          <leafValues>
            4.9484536051750183e-01 -7.9319852590560913e-01</leafValues></_>
        <_>
          <internalNodes>
            0 -1 37 -1.1059804819524288e-03</internalNodes>
          <leafValues>
            3.2175385951995850e-01 -5.3764498233795166e-01</leafValues></_>
        <_>
          <internalNodes>
            0 -1 58 6.3961447449401021e-04</internalNodes>
          <leafValues>
            1.7046350240707397e-01 -7.9634529352188110e-01</leafValues></_>
        <_>
          <internalNodes>
            0 -1 12 1.3679384253919125e-02</internalNodes>
          <leafValues>
            -5.6627082824707031e-01 3.5262301564216614e-01</leafValues></_>
        <_>
          <internalNodes>
            0 -1 6 -3.9605982601642609e-02</internalNodes>
          <leafValues>
            7.6802915334701538e-01 -2.2248463332653046e-01</leafValues></_>
        <_>
          <internalNodes>
            0 -1 67 3.0010461341589689e-04</internalNodes>
          <leafValues>
            2.0095011591911316e-01 -8.0071127414703369e-01</leafValues></_>
        <_>
          <internalNodes>
            0 -1 64 3.1770404893904924e-03</internalNodes>
          <leafValues>
            1.6292290389537811e-01 -8.3036202192306519e-01</leafValues></_>
        <_>
          <internalNodes>
            0 -1 20 1.6272217035293579e-03</internalNodes>
          <leafValues>
            -2.8590357303619385e-01 4.7020766139030457e-01</leafValues></_>
        <_>
          <internalNodes>
            0 -1 45 -3.2740868628025055e-02</internalNodes>
          <leafValues>
            -9.7675007581710815e-01 1.3321909308433533e-01</leafValues></_></weakClassifiers></_>
    <!-- stage 7 -->
    <_>
      <maxWeakCount>13</maxWeakCount>
      <stageThreshold>-2.0514404773712158e+00</stageThreshold>
      <weakClassifiers>
        <_>
          <internalNodes>
            0 -1 15 -1.0881511494517326e-02</internalNodes>
          <leafValues>
            2.9777777194976807e-01 -7.9953163862228394e-01</leafValues></_>
        <_>
          <internalNodes>
            0 -1 65 -8.0409977817907929e-04</internalNodes>
          <leafValues>
            3.8466709852218628e-01 -5.6081002950668335e-01</leafValues></_>
        <_>
          <internalNodes>
            0 -1 68 -4.1509879520162940e-04</internalNodes>
          <leafValues>
            3.5150367021560669e-01 -4.6899729967117310e-01</leafValues></_>
        <_>
          <internalNodes>
            0 -1 75 -6.2233113567344844e-05</internalNodes>
          <leafValues>
            2.4904693663120270e-01 -5.4324799776077271e-01</leafValues></_>
        <_>
          <internalNodes>
            0 -1 19 -2.5926241651177406e-03</internalNodes>
          <leafValues>
            -8.5269355773925781e-01 1.9336684048175812e-01</leafValues></_>
        <_>
          <internalNodes>
            0 -1 33 -1.4356435276567936e-03</internalNodes>
          <leafValues>
            5.2394390106201172e-01 -3.1587603688240051e-01</leafValues></_>
        <_>
          <internalNodes>
            0 -1 22 -5.6863616919144988e-04</internalNodes>
          <leafValues>
            -6.9574761390686035e-01 1.8978524208068848e-01</leafValues></_>
        <_>
          <internalNodes>
            0 -1 25 -3.1940083135850728e-04</internalNodes>
          <leafValues>
            3.0014932155609131e-01 -4.3295428156852722e-01</leafValues></_>
        <_>
          <internalNodes>
            0 -1 42 1.3446973171085119e-03</internalNodes>
          <leafValues>
            1.3217774033546448e-01 -8.9351511001586914e-01</leafValues></_>
        <_>
          <internalNodes>
            0 -1 50 9.4832830654922873e-05</internalNodes>
          <leafValues>
            -3.7546223402023315e-01 3.4668394923210144e-01</leafValues></_>
        <_>
          <internalNodes>
            0 -1 48 -2.0044376142323017e-03</internalNodes>
          <leafValues>
            -8.1018316745758057e-01 1.6708494722843170e-01</leafValues></_>
        <_>
          <internalNodes>
            0 -1 71 1.8240585632156581e-04</internalNodes>
          <leafValues>
            -3.9676171541213989e-01 3.2028451561927795e-01</leafValues></_>
        <_>
          <internalNodes>
            0 -1 5 -4.4989013113081455e-03</internalNodes>
          <leafValues>
            4.6864819526672363e-01 -2.9036384820938110e-01</leafValues></_></weakClassifiers></_>
    <!-- stage 8 -->
    <_>
      <maxWeakCount>12</maxWeakCount>
      <stageThreshold>-2.0268127918243408e+00</stageThreshold>
      <weakClassifiers>
        <_>
          <internalNodes>
            0 -1 4 -7.5571378692984581e-03</internalNodes>
          <leafValues>
            5.0000000000000000e-01 -7.7717393636703491e-01</leafValues></_>
        <_>
          <internalNodes>
            0 -1 69 -1.4679131098091602e-02</internalNodes>
          <leafValues>
            3.1932929158210754e-01 -6.1422878503799438e-01</leafValues></_>
        <_>
          <internalNodes>
            0 -1 43 3.6303244996815920e-05</internalNodes>
          <leafValues>
            -5.2451539039611816e-01 2.7440586686134338e-01</leafValues></_>
        <_>
          <internalNodes>
            0 -1 40 -1.3267859816551208e-02</internalNodes>
          <leafValues>
            2.2761934995651245e-01 -5.8888816833496094e-01</leafValues></_>
        <_>
          <internalNodes>
            0 -1 70 -1.6556974500417709e-02</internalNodes>
          <leafValues>
            -6.8325859308242798e-01 2.2449953854084015e-01</leafValues></_>
        <_>
          <internalNodes>
            0 -1 63 -2.4211940763052553e-04</internalNodes>
          <leafValues>
            -7.3301666975021362e-01 1.6339033842086792e-01</leafValues></_>
        <_>
          <internalNodes>
            0 -1 76 1.3837253209203482e-03</internalNodes>
          <leafValues>
            1.2849056720733643e-01 -8.4633010625839233e-01</leafValues></_>
        <_>
          <internalNodes>
            0 -1 2 -7.7347327023744583e-03</internalNodes>
          <leafValues>
            6.6289979219436646e-01 -1.9573614001274109e-01</leafValues></_>
        <_>
          <internalNodes>
            0 -1 17 5.7434868067502975e-03</internalNodes>
          <leafValues>
            1.5063123404979706e-01 -8.4383040666580200e-01</leafValues></_>
        <_>
          <internalNodes>
            0 -1 26 -2.9567191377282143e-03</internalNodes>
          <leafValues>
            4.4973948597908020e-01 -2.6815187931060791e-01</leafValues></_>
        <_>
          <internalNodes>
            0 -1 47 -1.5811854973435402e-03</internalNodes>
          <leafValues>
            -8.2045787572860718e-01 1.5128022432327271e-01</leafValues></_>
        <_>
          <internalNodes>
            0 -1 14 -2.0698118023574352e-03</internalNodes>
          <leafValues>
            4.2322701215744019e-01 -2.8565913438796997e-01</leafValues></_></weakClassifiers></_></stages>
  <features>
    <_>
      <rects>
        <_>
          0 2 24 2 -1.</_>
        <_>
          8 2 8 2 3.</_></rects>
      <tilted>0</tilted></_>
    <_>
      <rects>
        <_>
          0 6 3 2 -1.</_>
        <_>
          1 6 1 2 3.</_></rects>
      <tilted>0</tilted></_>
    <_>
      <rects>
        <_>
          0 7 3 8 -1.</_>
        <_>
          1 7 1 8 3.</_></rects>
      <tilted>0</tilted></_>
    <_>
      <rects>
        <_>
          1 1 6 4 -1.</_>
        <_>
          1 1 3 2 2.</_>
        <_>
          4 3 3 2 2.</_></rects>
      <tilted>0</tilted></_>
    <_>
      <rects>
        <_>
          1 4 2 4 -1.</_>
        <_>
          1 4 1 2 2.</_>
        <_>
          2 6 1 2 2.</_></rects>
      <tilted>0</tilted></_>
    <_>
      <rects>
        <_>
          1 5 6 2 -1.</_>
        <_>
          3 5 2 2 3.</_></rects>
      <tilted>0</tilted></_>
    <_>
      <rects>
        <_>
          1 23 21 1 -1.</_>
        <_>
          8 23 7 1 3.</_></rects>
      <tilted>0</tilted></_>
    <_>
      <rects>
        <_>
          2 6 16 4 -1.</_>
        <_>
          2 8 16 2 2.</_></rects>
      <tilted>0</tilted></_>
    <_>
      <rects>
        <_>
          2 15 14 2 -1.</_>
        <_>
          2 16 14 1 2.</_></rects>
      <tilted>0</tilted></_>
    <_>
      <rects>
        <_>
          2 23 21 1 -1.</_>
        <_>
          9 23 7 1 3.</_></rects>
      <tilted>0</tilted></_>
    <_>
      <rects>
        <_>
          3 0 8 1 -1.</_>
        <_>
          7 0 4 1 2.</_></rects>
      <tilted>0</tilted></_>
    <_>
      <rects>
        <_>
          3 1 10 8 -1.</_>
        <_>
          3 1 5 4 2.</_>
        <_>
          8 5 5 4 2.</_></rects>
      <tilted>0</tilted></_>
    <_>
      <rects>
        <_>
          3 1 12 10 -1.</_>
        <_>
          3 1 6 5 2.</_>
        <_>
          9 6 6 5 2.</_></rects>
      <tilted>0</tilted></_>
    <_>
      <rects>
        <_>
          3 2 8 6 -1.</_>
        <_>
          3 2 4 3 2.</_>
        <_>
          7 5 4 3 2.</_></rects>
      <tilted>0</tilted></_>
    <_>
      <rects>
        <_>
          3 21 8 2 -1.</_>
        <_>
          3 21 4 1 2.</_>
        <_>
          7 22 4 1 2.</_></rects>
      <tilted>0</tilted></_>
    <_>
      <rects>
        <_>
          4 0 6 2 -1.</_>
        <_>
          4 0 3 1 2.</_>
        <_>
          7 1 3 1 2.</_></rects>
      <tilted>0</tilted></_>
    <_>
      <rects>
        <_>
          4 1 4 2 -1.</_>
        <_>
          4 1 2 1 2.</_>
        <_>
          6 2 2 1 2.</_></rects>
      <tilted>0</tilted></_>
    <_>
      <rects>
        <_>
          4 4 6 6 -1.</_>
        <_>
          4 7 6 3 2.</_></rects>
      <tilted>0</tilted></_>
    <_>
      <rects>
        <_>
          4 5 16 4 -1.</_>
        <_>
          4 5 8 2 2.</_>
        <_>
          12 7 8 2 2.</_></rects>
      <tilted>0</tilted></_>
    <_>
      <rects>
        <_>
          4 8 8 2 -1.</_>
        <_>
          4 9 8 1 2.</_></rects>
      <tilted>0</tilted></_>
    <_>
      <rects>
        <_>
          5 0 3 2 -1.</_>
        <_>
          5 1 3 1 2.</_></rects>
      <tilted>0</tilted></_>
    <_>
      <rects>
        <_>
          5 2 15 2 -1.</_>
        <_>
          5 3 15 1 2.</_></rects>
      <tilted>0</tilted></_>
    <_>
      <rects>
        <_>
          5 12 6 2 -1.</_>
        <_>
          5 12 3 1 2.</_>
        <_>
          8 13 3 1 2.</_></rects>
      <tilted>0</tilted></_>
    <_>
      <rects>
        <_>
          5 12 8 8 -1.</_>
        <_>
          9 12 4 8 2.</_></rects>
      <tilted>0</tilted></_>
    <_>
      <rects>
        <_>
          6 0 12 4 -1.</_>
        <_>
          6 2 12 2 2.</_></rects>
      <tilted>0</tilted></_>
    <_>
      <rects>
        <_>
          6 3 3 3 -1.</_>
        <_>
          6 4 3 1 3.</_></rects>
      <tilted>0</tilted></_>
    <_>
      <rects>
        <_>
          6 7 4 4 -1.</_>
        <_>
          6 7 2 2 2.</_>
        <_>
          8 9 2 2 2.</_></rects>
      <tilted>0</tilted></_>
    <_>
      <rects>
        <_>
          6 22 12 2 -1.</_>
        <_>
          6 23 12 1 2.</_></rects>
      <tilted>0</tilted></_>
    <_>
      <rects>
        <_>
          7 1 5 6 -1.</_>
        <_>
          7 3 5 2 3.</_></rects>
      <tilted>0</tilted></_>
    <_>
      <rects>
        <_>
          7 1 12 22 -1.</_>
        <_>
          7 12 12 11 2.</_></rects>
      <tilted>0</tilted></_>
    <_>
      <rects>
        <_>
          7 8 13 12 -1.</_>
        <_>
          7 12 13 4 3.</_></rects>
      <tilted>0</tilted></_>
    <_>
      <rects>
        <_>
          7 12 9 3 -1.</_>
        <_>
          7 13 9 1 3.</_></rects>
      <tilted>0</tilted></_>
    <_>
      <rects>
        <_>
          7 15 14 2 -1.</_>
        <_>
          7 16 14 1 2.</_></rects>
      <tilted>0</tilted></_>
    <_>
      <rects>
        <_>
          7 22 4 2 -1.</_>
        <_>
          7 22 2 1 2.</_>
        <_>
          9 23 2 1 2.</_></rects>
      <tilted>0</tilted></_>
    <_>
      <rects>
        <_>
          8 0 9 2 -1.</_>
        <_>
          8 1 9 1 2.</_></rects>
      <tilted>0</tilted></_>
    <_>
      <rects>
        <_>
          8 0 9 3 -1.</_>
        <_>
          8 1 9 1 3.</_></rects>
      <tilted>0</tilted></_>
    <_>
      <rects>
        <_>
          8 0 10 2 -1.</_>
        <_>
          8 1 10 1 2.</_></rects>
      <tilted>0</tilted></_>
    <_>
      <rects>
        <_>
          8 8 2 4 -1.</_>
        <_>
          8 8 1 2 2.</_>
        <_>
          9 10 1 2 2.</_></rects>
      <tilted>0</tilted></_>
    <_>
      <rects>
        <_>
          8 15 7 3 -1.</_>
        <_>
          8 16 7 1 3.</_></rects>
      <tilted>0</tilted></_>
    <_>
      <rects>
        <_>
          9 0 9 2 -1.</_>
        <_>
          9 1 9 1 2.</_></rects>
      <tilted>0</tilted></_>
    <_>
      <rects>
        <_>
          9 0 9 9 -1.</_>
        <_>
          9 3 9 3 3.</_></rects>
      <tilted>0</tilted></_>
    <_>
      <rects>
        <_>
          9 1 9 3 -1.</_>
        <_>
          12 1 3 3 3.</_></rects>
      <tilted>0</tilted></_>
    <_>
      <rects>
        <_>
          9 2 6 1 -1.</_>
        <_>
          11 2 2 1 3.</_></rects>
      <tilted>0</tilted></_>
    <_>
      <rects>
        <_>
          9 19 2 3 -1.</_>
        <_>
          9 20 2 1 3.</_></rects>
      <tilted>0</tilted></_>
    <_>
      <rects>
        <_>
          10 4 10 12 -1.</_>
        <_>
          10 8 10 4 3.</_></rects>
      <tilted>0</tilted></_>
    <_>
      <rects>
        <_>
          10 6 3 18 -1.</_>
        <_>
          10 15 3 9 2.</_></rects>
      <tilted>0</tilted></_>
    <_>
      <rects>
        <_>
          10 17 2 4 -1.</_>
        <_>
          10 17 1 2 2.</_>
        <_>
          11 19 1 2 2.</_></rects>
      <tilted>0</tilted></_>
    <_>
      <rects>
        <_>
          10 19 2 4 -1.</_>
        <_>
          11 19 1 4 2.</_></rects>
      <tilted>0</tilted></_>
    <_>
      <rects>
        <_>
          11 0 3 6 -1.</_>
        <_>
          12 0 1 6 3.</_></rects>
      <tilted>0</tilted></_>
    <_>
      <rects>
        <_>
          11 0 2 14 -1.</_>
        <_>
          11 7 2 7 2.</_></rects>
      <tilted>0</tilted></_>
    <_>
      <rects>
        <_>
          11 1 1 3 -1.</_>
        <_>
          11 2 1 1 3.</_></rects>
      <tilted>0</tilted></_>
    <_>
      <rects>
        <_>
          11 2 2 4 -1.</_>
        <_>
          11 2 1 2 2.</_>
        <_>
          12 4 1 2 2.</_></rects>
      <tilted>0</tilted></_>
    <_>
      <rects>
        <_>
          11 2 2 6 -1.</_>
        <_>
          11 2 1 3 2.</_>
        <_>
          12 5 1 3 2.</_></rects>
      <tilted>0</tilted></_>
    <_>
      <rects>
        <_>
          11 2 2 3 -1.</_>
        <_>
          11 3 2 1 3.</_></rects>
      <tilted>0</tilted></_>
    <_>
      <rects>
        <_>
          11 2 8 4 -1.</_>
        <_>
          11 2 4 2 2.</_>
        <_>
          15 4 4 2 2.</_></rects>
      <tilted>0</tilted></_>
    <_>
      <rects>
        <_>
          11 3 2 8 -1.</_>
        <_>
          11 7 2 4 2.</_></rects>
      <tilted>0</tilted></_>
    <_>
      <rects>
        <_>
          11 4 12 1 -1.</_>
        <_>
          15 4 4 1 3.</_></rects>
      <tilted>0</tilted></_>
    <_>
      <rects>
        <_>
          11 5 2 2 -1.</_>
        <_>
          11 5 1 1 2.</_>
        <_>
          12 6 1 1 2.</_></rects>
      <tilted>0</tilted></_>
    <_>
      <rects>
        <_>
          11 5 3 2 -1.</_>
        <_>
          11 6 3 1 2.</_></rects>
      <tilted>0</tilted></_>
    <_>
      <rects>
        <_>
          11 6 7 6 -1.</_>
        <_>
          11 8 7 2 3.</_></rects>
      <tilted>0</tilted></_>
    <_>
      <rects>
        <_>
          11 8 5 15 -1.</_>
        <_>
          11 13 5 5 3.</_></rects>
      <tilted>0</tilted></_>
    <_>
      <rects>
        <_>
          11 15 5 3 -1.</_>
        <_>
          11 16 5 1 3.</_></rects>
      <tilted>0</tilted></_>
    <_>
      <rects>
        <_>
          12 1 2 3 -1.</_>
        <_>
          12 2 2 1 3.</_></rects>
      <tilted>0</tilted></_>
    <_>
      <rects>
        <_>
          12 2 2 1 -1.</_>
        <_>
          13 2 1 1 2.</_></rects>
      <tilted>0</tilted></_>
    <_>
      <rects>
        <_>
          12 4 1 18 -1.</_>
        <_>
          12 13 1 9 2.</_></rects>
      <tilted>0</tilted></_>
    <_>
      <rects>
        <_>
          12 13 2 4 -1.</_>
        <_>
          12 13 1 2 2.</_>
        <_>
          13 15 1 2 2.</_></rects>
      <tilted>0</tilted></_>
    <_>
      <rects>
        <_>
          13 2 2 2 -1.</_>
        <_>
          13 3 2 1 2.</_></rects>
      <tilted>0</tilted></_>
    <_>
      <rects>
        <_>
          13 18 2 1 -1.</_>
        <_>
          14 18 1 1 2.</_></rects>
      <tilted>0</tilted></_>
    <_>
      <rects>
        <_>
          14 0 1 3 -1.</_>
        <_>
          14 1 1 1 3.</_></rects>
      <tilted>0</tilted></_>
    <_>
      <rects>
        <_>
          15 1 6 10 -1.</_>
        <_>
          15 1 3 5 2.</_>
        <_>
          18 6 3 5 2.</_></rects>
      <tilted>0</tilted></_>
    <_>
      <rects>
        <_>
          15 2 4 18 -1.</_>
        <_>
          15 11 4 9 2.</_></rects>
      <tilted>0</tilted></_>
    <_>
      <rects>
        <_>
          16 5 2 4 -1.</_>
        <_>
          16 5 1 2 2.</_>
        <_>
          17 7 1 2 2.</_></rects>
      <tilted>0</tilted></_>
    <_>
      <rects>
        <_>
          18 2 4 12 -1.</_>
        <_>
          18 6 4 4 3.</_></rects>
      <tilted>0</tilted></_>
    <_>
      <rects>
        <_>
          19 4 3 11 -1.</_>
        <_>
          20 4 1 11 3.</_></rects>
      <tilted>0</tilted></_>
    <_>
      <rects>
        <_>
          19 8 3 6 -1.</_>
        <_>
          20 8 1 6 3.</_></rects>
      <tilted>0</tilted></_>
    <_>
      <rects>
        <_>
          20 5 2 9 -1.</_>
        <_>
          20 8 2 3 3.</_></rects>
      <tilted>0</tilted></_>
    <_>
      <rects>
        <_>
          20 11 3 2 -1.</_>
        <_>
          20 12 3 1 2.</_></rects>
      <tilted>0</tilted></_></features></cascade>
</opencv_storage>
