<?xml version="1.0"?>
<opencv_storage>
<cascade>
  <stageType>BOOST</stageType>
  <featureType>LBP</featureType>
  <height>24</height>
  <width>24</width>
  <stageParams>
    <boostType>GAB</boostType>
    <minHitRate>9.9500000476837158e-01</minHitRate>
    <maxFalseAlarm>3.0000001192092896e-01</maxFalseAlarm>
    <weightTrimRate>9.4999999999999996e-01</weightTrimRate>
    <maxDepth>1</maxDepth>
    <maxWeakCount>100</maxWeakCount></stageParams>
  <featureParams>
    <maxCatCount>256</maxCatCount>
    <featSize>1</featSize></featureParams>
  <stageNum>10</stageNum>
  <stages>
    <!-- stage 0 -->
    <_>
      <maxWeakCount>3</maxWeakCount>
      <stageThreshold>-1.0754327774047852e+00</stageThreshold>
      <weakClassifiers>
        <_>
          <internalNodes>
            0 -1 36 -1 -1 -1 -1 -161 -129 -1 -1</internalNodes>
          <leafValues>
            -8.9650213718414307e-01 9.2539966106414795e-01</leafValues></_>
        <_>
          <internalNodes>
            0 -1 2 -136314881 -54601762 -34393158 -4958754 -33595905
            -58917635 -1 -2049</internalNodes>
          <leafValues>
            -8.9111769199371338e-01 7.4210083484649658e-01</leafValues></_>
        <_>
          <internalNodes>
            0 -1 32 -2097809 -263329 -553648581 -318767137 -37753076
            -9197283 -69206532 -1049601</internalNodes>
          <leafValues>
            -8.8551461696624756e-01 7.1218705177307129e-01</leafValues></_></weakClassifiers></_>
    <!-- stage 1 -->
    <_>
      <maxWeakCount>3</maxWeakCount>
      <stageThreshold>-1.2031135559082031e+00</stageThreshold>
      <weakClassifiers>
        <_>
          <internalNodes>
            0 -1 33 -1 -212862241 -38735905 -71303841 -1311748 -1049175
            -69470209 -1</internalNodes>
          <leafValues>
            -9.1369044780731201e-01 7.7602523565292358e-01</leafValues></_>
        <_>
          <internalNodes>
            0 -1 19 1071513597 -35679747 -169421345 -8521379 -269434881
            -467717 -273744130 -1347891808</internalNodes>
          <leafValues>
            -8.6115264892578125e-01 7.1408033370971680e-01</leafValues></_>
        <_>
          <internalNodes>
            0 -1 6 -2162690 -67618 -2269314 -6291524 -68178050 -2209026
            -72615041 -1</internalNodes>
          <leafValues>
            -9.8311847448348999e-01 5.7172954082489014e-01</leafValues></_></weakClassifiers></_>
    <!-- stage 2 -->
    <_>
      <maxWeakCount>3</maxWeakCount>
      <stageThreshold>-1.0345894098281860e+00</stageThreshold>
      <weakClassifiers>
        <_>
          <internalNodes>
            0 -1 15 -144703489 -405802545 1360232913 -170034721
            -242484481 -913798997 -202376257 -4353</internalNodes>
          <leafValues>
            -8.6628186702728271e-01 7.8984236717224121e-01</leafValues></_>
        <_>
          <internalNodes>
            0 -1 20 1464909277 -2548268 -1760223745 -33713767 -300041281
            -67528454 -1148600929 -71791088</internalNodes>
          <leafValues>
            -8.4201681613922119e-01 7.2307604551315308e-01</leafValues></_>
        <_>
          <internalNodes>
            0 -1 25 -10931 -2132499 -208700193 -547358721 -2111476
            -82844532 -385880868 -68289841</internalNodes>
          <leafValues>
            -8.5408842563629150e-01 6.7370921373367310e-01</leafValues></_></weakClassifiers></_>
    <!-- stage 3 -->
    <_>
      <maxWeakCount>3</maxWeakCount>
      <stageThreshold>-1.1389088630676270e+00</stageThreshold>
      <weakClassifiers>
        <_>
          <internalNodes>
            0 -1 9 -2097153 -270023477 -83503137 -74459137 -105710613
            -878206802 -69731333 -1</internalNodes>
          <leafValues>
            -8.8975608348846436e-01 7.9000002145767212e-01</leafValues></_>
        <_>
          <internalNodes>
            0 -1 34 -69206019 -1074013763 -1252003905 -8737 -542114824
            -1078335032 -2491395 -1025</internalNodes>
          <leafValues>
            -8.8763922452926636e-01 6.0470813512802124e-01</leafValues></_>
        <_>
          <internalNodes>
            0 -1 28 -67108945 -67109905 -938488114 -226503713 -76547834
            2051789583 -8390441 -1025</internalNodes>
          <leafValues>
            -8.4093743562698364e-01 6.3848650455474854e-01</leafValues></_></weakClassifiers></_>
    <!-- stage 4 -->
    <_>
      <maxWeakCount>3</maxWeakCount>
      <stageThreshold>-1.0001020431518555e+00</stageThreshold>
      <weakClassifiers>
        <_>
          <internalNodes>
            0 -1 13 -134217729 -876162805 -705181193 -136316453
            -135530497 -825509215 -69493761 -17</internalNodes>
          <leafValues>
            -8.6634379625320435e-01 7.5042736530303955e-01</leafValues></_>
        <_>
          <internalNodes>
            0 -1 7 -2097185 -421093234 -216444521 -35710281 -91276289
            -844367634 -611845141 -4198769</internalNodes>
          <leafValues>
            -8.1470537185668945e-01 6.7938208580017090e-01</leafValues></_>
        <_>
          <internalNodes>
            0 -1 29 -101726417 -679389217 -796330241 1918298363
            -68944115 -80743605 -156646421 -67371029</internalNodes>
          <leafValues>
            -8.0641490221023560e-01 6.8094718456268311e-01</leafValues></_></weakClassifiers></_>
    <!-- stage 5 -->
    <_>
      <maxWeakCount>5</maxWeakCount>
      <stageThreshold>-1.1185119152069092e+00</stageThreshold>
      <weakClassifiers>
        <_>
          <internalNodes>
            0 -1 22 -136840193 -876092729 -787103265 -606082989
            -799807505 -889986551 -236781685 -3416085</internalNodes>
          <leafValues>
            -8.4726923704147339e-01 6.9363164901733398e-01</leafValues></_>
        <_>
          <internalNodes>
            0 -1 10 419713533 -212581923 -646229505 -541912815
            1000362748 -104840287 -1619202305 -1402403</internalNodes>
          <leafValues>
            -8.2979172468185425e-01 6.2093234062194824e-01</leafValues></_>
        <_>
          <internalNodes>
            0 -1 35 -238954337 -1646411233 203739279 -178812425
            -88098028 -7699397 -477567057 -67387669</internalNodes>
          <leafValues>
            -8.2877904176712036e-01 6.2658160924911499e-01</leafValues></_>
        <_>
          <internalNodes>
            0 -1 1 -284169225 -141626270 1191443323 -203424581
            -854074885 -690911755 1329855479 -1357</internalNodes>
          <leafValues>
            -7.3271250724792480e-01 7.0035779476165771e-01</leafValues></_>
        <_>
          <internalNodes>
            0 -1 24 -1713867811 1534858716 -2053710497 -1110814243
            -7030082 -4683011 -284495907 -1074210343</internalNodes>
          <leafValues>
            -7.6839035749435425e-01 6.7001926898956299e-01</leafValues></_></weakClassifiers></_>
    <!-- stage 6 -->
    <_>
      <maxWeakCount>4</maxWeakCount>
      <stageThreshold>-1.9645763635635376e+00</stageThreshold>
      <weakClassifiers>
        <_>
          <internalNodes>
            0 -1 8 -202116097 -314125841 -751496933 -136316517
            -678759717 -842590829 -72616513 -262181</internalNodes>
          <leafValues>
            -9.0742623805999756e-01 6.3450294733047485e-01</leafValues></_>
        <_>
          <internalNodes>
            0 -1 14 -201981953 -149300261 1292981234 1598397343
            -1190926101 -1137742197 -17043473 2147479503</internalNodes>
          <leafValues>
            -8.1311237812042236e-01 6.1187916994094849e-01</leafValues></_>
        <_>
          <internalNodes>
            0 -1 0 -556795990 -507055742 -1722978080 -36716085
            -1005129017 -1695904189 592035700 -314385</internalNodes>
          <leafValues>
            -8.1555312871932983e-01 6.0953366756439209e-01</leafValues></_>
        <_>
          <internalNodes>
            0 -1 12 -1448428629 -675630293 940819485 -216022825
            246139560 -121969221 2875887 -8388649</internalNodes>
          <leafValues>
            -8.5357135534286499e-01 5.6780707836151123e-01</leafValues></_></weakClassifiers></_>
    <!-- stage 7 -->
    <_>
      <maxWeakCount>5</maxWeakCount>
      <stageThreshold>-1.4099435806274414e+00</stageThreshold>
      <weakClassifiers>
        <_>
          <internalNodes>
            0 -1 31 -209716385 -81270401 1409978451 -313526965 -22806801
            -1176782713 -192155409 -25166849</internalNodes>
          <leafValues>
            -8.6196625232696533e-01 6.0691821575164795e-01</leafValues></_>
        <_>
          <internalNodes>
            0 -1 11 1810883503 -305409809 51456531 -1145053793
            1539492351 -206846278 1170995131 -537920873</internalNodes>
          <leafValues>
            -8.2730996608734131e-01 5.3163558244705200e-01</leafValues></_>
        <_>
          <internalNodes>
            0 -1 26 -10501939 2067726745 1342478323 1402991531
            -354750225 -72828797 -523699201 -994123777</internalNodes>
          <leafValues>
            -7.7707594633102417e-01 5.8767813444137573e-01</leafValues></_>
        <_>
          <internalNodes>
            0 -1 3 -752879777 -6357538 -719029859 1069162495 -242361347
            -84370433 -401693715 -1074102481</internalNodes>
          <leafValues>
            -7.9912310838699341e-01 5.9849923849105835e-01</leafValues></_>
        <_>
          <internalNodes>
            0 -1 5 -3145730 -76048637 354464204 2144678651 -607387969
            -637824889 2042342633 1609559757</internalNodes>
          <leafValues>
            -8.8594502210617065e-01 4.9077764153480530e-01</leafValues></_></weakClassifiers></_>
    <!-- stage 8 -->
    <_>
      <maxWeakCount>5</maxWeakCount>
      <stageThreshold>-1.3507326841354370e+00</stageThreshold>
      <weakClassifiers>
        <_>
          <internalNodes>
            0 -1 38 -2361345 -182507445 384364667 -149169525 -477103107
            -889495063 -404751445 -67108865</internalNodes>
          <leafValues>
            -8.2713663578033447e-01 6.2694299221038818e-01</leafValues></_>
        <_>
          <internalNodes>
            0 -1 21 -943460561 -214600914 15925723 -202114733 -935345233
            -630274643 1135277035 -537399297</internalNodes>
          <leafValues>
            -8.0631107091903687e-01 5.0924181938171387e-01</leafValues></_>
        <_>
          <internalNodes>
            0 -1 17 -1610614819 2145110615 1095466269 -577033447
            1866230781 734565045 2144603088 -4456769</internalNodes>
          <leafValues>
            -7.1053260564804077e-01 5.6862008571624756e-01</leafValues></_>
        <_>
          <internalNodes>
            0 -1 30 -749215985 -111691177 140748719 -177735201
            -571736308 -76819627 -376702738 -142614533</internalNodes>
          <leafValues>
            -8.9309459924697876e-01 4.5963677763938904e-01</leafValues></_>
        <_>
          <internalNodes>
            0 -1 23 -37879811 1876788479 394132957 -1076237937
            1713545467 1065441435 804913067 2147332095</internalNodes>
          <leafValues>
            -7.2249412536621094e-01 5.7078927755355835e-01</leafValues></_></weakClassifiers></_>
    <!-- stage 9 -->
    <_>
      <maxWeakCount>5</maxWeakCount>
      <stageThreshold>-1.3294825553894043e+00</stageThreshold>
      <weakClassifiers>
        <_>
          <internalNodes>
            0 -1 18 -203950101 -339098931 855856467 -570559653
            -215883013 -812004182 -74728517 -68166193</internalNodes>
          <leafValues>
            -8.7379682064056396e-01 3.6410257220268250e-01</leafValues></_>
        <_>
          <internalNodes>
            0 -1 4 -742205985 -130595 1532433725 -2180257 -125110097
            -1057435175 -1626092549 -308833</internalNodes>
          <leafValues>
            -7.4111765623092651e-01 5.0601428747177124e-01</leafValues></_>
        <_>
          <internalNodes>
            0 -1 37 -211819601 -1080325273 923392778 -1512371993
            -74188848 -241043291 -1165247815 -76307793</internalNodes>
          <leafValues>
            -7.6559185981750488e-01 5.1845806837081909e-01</leafValues></_>
        <_>
          <internalNodes>
            0 -1 27 -77597279 -3964454 -712699814 1346738351 -112984244
            -921057278 -91493716 -63963138</internalNodes>
          <leafValues>
            -7.2868829965591431e-01 5.5367487668991089e-01</leafValues></_>
        <_>
          <internalNodes>
            0 -1 16 -207754243 -7796173 -107364348 -83409401 2017488564
            1789436074 42848045 -351309269</internalNodes>
          <leafValues>
            -7.4978303909301758e-01 5.4252964258193970e-01</leafValues></_></weakClassifiers></_></stages>
  <features>
    <_>
      <rect>
        0 17 1 1</rect></_>
    <_>
      <rect>
        1 1 5 6</rect></_>
    <_>
      <rect>
        1 17 2 2</rect></_>
    <_>
      <rect>
        1 18 2 2</rect></_>
    <_>
      <rect>
        1 19 2 1</rect></_>
    <_>
      <rect>
        3 6 6 6</rect></_>
    <_>
      <rect>
        3 11 3 4</rect></_>
    <_>
      <rect>
        3 18 1 1</rect></_>
    <_>
      <rect>
        4 16 1 1</rect></_>
    <_>
      <rect>
        5 14 1 1</rect></_>
    <_>
      <rect>
        5 19 4 1</rect></_>
    <_>
      <rect>
        6 1 3 3</rect></_>
    <_>
      <rect>
        6 6 2 4</rect></_>
    <_>
      <rect>
        6 8 2 2</rect></_>
    <_>
      <rect>
        6 8 4 5</rect></_>
    <_>
      <rect>
        6 12 1 1</rect></_>
    <_>
      <rect>
        6 14 3 3</rect></_>
    <_>
      <rect>
        6 17 2 2</rect></_>
    <_>
      <rect>
        7 11 1 1</rect></_>
    <_>
      <rect>
        7 20 3 1</rect></_>
    <_>
      <rect>
        8 20 4 1</rect></_>
    <_>
      <rect>
        9 2 2 2</rect></_>
    <_>
      <rect>
        9 7 1 1</rect></_>
    <_>
      <rect>
        9 9 3 4</rect></_>
    <_>
      <rect>
        9 19 3 1</rect></_>
    <_>
      <rect>
        11 5 3 4</rect></_>
    <_>
      <rect>
        12 3 2 5</rect></_>
    <_>
      <rect>
        13 7 1 1</rect></_>
    <_>
      <rect>
        13 7 2 2</rect></_>
    <_>
      <rect>
        14 9 2 3</rect></_>
    <_>
      <rect>
        15 13 2 2</rect></_>
    <_>
      <rect>
        16 6 2 6</rect></_>
    <_>
      <rect>
        16 14 2 2</rect></_>
    <_>
      <rect>
        17 15 2 3</rect></_>
    <_>
      <rect>
        17 17 2 2</rect></_>
    <_>
      <rect>
        17 18 2 1</rect></_>
    <_>
      <rect>
        18 16 1 1</rect></_>
    <_>
      <rect>
        18 17 2 2</rect></_>
    <_>
      <rect>
        19 18 1 2</rect></_></features></cascade>
</opencv_storage>
