<?xml version="1.0"?>
<opencv_storage>
<cascade>
  <stageType>BOOST</stageType>
  <featureType>HAAR</featureType>
  <height>24</height>
  <width>24</width>
  <stageParams>
    <boostType>GAB</boostType>
    <minHitRate>9.9500000476837158e-01</minHitRate>
    <maxFalseAlarm>5.0000000000000000e-01</maxFalseAlarm>
    <weightTrimRate>9.4999999999999996e-01</weightTrimRate>
    <maxDepth>1</maxDepth>
    <maxWeakCount>100</maxWeakCount></stageParams>
  <featureParams>
    <maxCatCount>0</maxCatCount>
    <featSize>1</featSize>
    <mode>BASIC</mode></featureParams>
  <stageNum>12</stageNum>
  <stages>
    <!-- stage 0 -->
    <_>
      <maxWeakCount>7</maxWeakCount>
      <stageThreshold>-2.2334272861480713e+00</stageThreshold>
      <weakClassifiers>
        <_>
          <internalNodes>
            0 -1 80 3.6383755505084991e-02</internalNodes>
          <leafValues>
            -8.4210526943206787e-01 7.5000000000000000e-01</leafValues></_>
        <_>
          <internalNodes>
            0 -1 6 4.5931294560432434e-02</internalNodes>
          <leafValues>
            -6.0407519340515137e-01 7.5091838836669922e-01</leafValues></_>
        <_>
          <internalNodes>
            0 -1 56 -3.9772242307662964e-02</internalNodes>
          <leafValues>
            6.2099421024322510e-01 -5.0429594516754150e-01</leafValues></_>
        <_>
          <internalNodes>
            0 -1 9 -3.4359619021415710e-02</internalNodes>
          <leafValues>
            7.1690839529037476e-01 -3.3836480975151062e-01</leafValues></_>
        <_>
          <internalNodes>
            0 -1 42 -8.4654316306114197e-03</internalNodes>
          <leafValues>
            5.1715040206909180e-01 -3.9804109930992126e-01</leafValues></_>
        <_>
          <internalNodes>
            0 -1 87 -8.0276235938072205e-02</internalNodes>
          <leafValues>
            7.6322448253631592e-01 -2.5111398100852966e-01</leafValues></_>
        <_>
          <internalNodes>
            0 -1 64 1.0326155461370945e-02</internalNodes>
          <leafValues>
            -3.5070416331291199e-01 5.1952534914016724e-01</leafValues></_></weakClassifiers></_>
    <!-- stage 1 -->
    <_>
      <maxWeakCount>8</maxWeakCount>
      <stageThreshold>-1.6649458408355713e+00</stageThreshold>
      <weakClassifiers>
        <_>
          <internalNodes>
            0 -1 102 -3.1101260334253311e-02</internalNodes>
          <leafValues>
            6.1414790153503418e-01 -8.1818181276321411e-01</leafValues></_>
        <_>
          <internalNodes>
            0 -1 53 -1.8415084108710289e-02</internalNodes>
          <leafValues>
            5.7720321416854858e-01 -5.7941615581512451e-01</leafValues></_>
        <_>
          <internalNodes>
            0 -1 20 -4.5577485114336014e-02</internalNodes>
          <leafValues>
            6.2918418645858765e-01 -4.1743898391723633e-01</leafValues></_>
        <_>
          <internalNodes>
            0 -1 54 -7.1061655879020691e-02</internalNodes>
          <leafValues>
            6.2633228302001953e-01 -3.0699062347412109e-01</leafValues></_>
        <_>
          <internalNodes>
            0 -1 60 1.7883143154904246e-03</internalNodes>
          <leafValues>
            2.1815523505210876e-01 -8.5994625091552734e-01</leafValues></_>
        <_>
          <internalNodes>
            0 -1 59 -1.7144589219242334e-03</internalNodes>
          <leafValues>
            -7.5129795074462891e-01 2.1827992796897888e-01</leafValues></_>
        <_>
          <internalNodes>
            0 -1 51 2.1513337560463697e-04</internalNodes>
          <leafValues>
            -5.3579789400100708e-01 2.6360768079757690e-01</leafValues></_>
        <_>
          <internalNodes>
            0 -1 0 -2.2479477524757385e-01</internalNodes>
          <leafValues>
            6.2373679876327515e-01 -2.4296116828918457e-01</leafValues></_></weakClassifiers></_>
    <!-- stage 2 -->
    <_>
      <maxWeakCount>8</maxWeakCount>
      <stageThreshold>-1.6088238954544067e+00</stageThreshold>
      <weakClassifiers>
        <_>
          <internalNodes>
            0 -1 101 -2.1496452391147614e-02</internalNodes>
          <leafValues>
            5.5743241310119629e-01 -7.8169685602188110e-01</leafValues></_>
        <_>
          <internalNodes>
            0 -1 24 1.3688568025827408e-02</internalNodes>
          <leafValues>
            -6.2397885322570801e-01 3.4219500422477722e-01</leafValues></_>
        <_>
          <internalNodes>
            0 -1 29 -1.4858486130833626e-02</internalNodes>
          <leafValues>
            7.1033048629760742e-01 -2.7346977591514587e-01</leafValues></_>
        <_>
          <internalNodes>
            0 -1 10 1.4526194334030151e-01</internalNodes>
          <leafValues>
            -2.4497018754482269e-01 7.3779833316802979e-01</leafValues></_>
        <_>
          <internalNodes>
            0 -1 84 -2.2021261975169182e-03</internalNodes>
          <leafValues>
            -8.6043429374694824e-01 2.1152777969837189e-01</leafValues></_>
        <_>
          <internalNodes>
            0 -1 89 7.3135277489200234e-04</internalNodes>
          <leafValues>
            2.4293528497219086e-01 -6.5641498565673828e-01</leafValues></_>
        <_>
          <internalNodes>
            0 -1 97 -2.1278583153616637e-04</internalNodes>
          <leafValues>
            -6.8703097105026245e-01 1.6921912133693695e-01</leafValues></_>
        <_>
          <internalNodes>
            0 -1 74 -5.3142160177230835e-03</internalNodes>
          <leafValues>
            7.0715773105621338e-01 -2.2022858262062073e-01</leafValues></_></weakClassifiers></_>
    <!-- stage 3 -->
    <_>
      <maxWeakCount>10</maxWeakCount>
      <stageThreshold>-1.6259714365005493e+00</stageThreshold>
      <weakClassifiers>
        <_>
          <internalNodes>
            0 -1 113 -5.2172746509313583e-03</internalNodes>
          <leafValues>
            4.8669797182083130e-01 -7.9034614562988281e-01</leafValues></_>
        <_>
          <internalNodes>
            0 -1 91 2.4382032454013824e-02</internalNodes>
          <leafValues>
            -4.5768812298774719e-01 6.0513538122177124e-01</leafValues></_>
        <_>
          <internalNodes>
            0 -1 1 1.0988664627075195e-01</internalNodes>
          <leafValues>
            -2.9585525393486023e-01 6.1013644933700562e-01</leafValues></_>
        <_>
          <internalNodes>
            0 -1 33 4.3322592973709106e-03</internalNodes>
          <leafValues>
            -3.6883991956710815e-01 4.2668136954307556e-01</leafValues></_>
        <_>
          <internalNodes>
            0 -1 112 -4.0314806392416358e-04</internalNodes>
          <leafValues>
            -7.8233206272125244e-01 1.9844169914722443e-01</leafValues></_>
        <_>
          <internalNodes>
            0 -1 45 5.5460646748542786e-02</internalNodes>
          <leafValues>
            -1.8567545711994171e-01 7.4520951509475708e-01</leafValues></_>
        <_>
          <internalNodes>
            0 -1 41 -2.6462716050446033e-03</internalNodes>
          <leafValues>
            5.9121572971343994e-01 -2.5112041831016541e-01</leafValues></_>
        <_>
          <internalNodes>
            0 -1 72 -4.8554054228588939e-04</internalNodes>
          <leafValues>
            3.1922322511672974e-01 -4.7806510329246521e-01</leafValues></_>
        <_>
          <internalNodes>
            0 -1 75 1.8395060033071786e-04</internalNodes>
          <leafValues>
            2.1998177468776703e-01 -6.6376656293869019e-01</leafValues></_>
        <_>
          <internalNodes>
            0 -1 32 1.1612786911427975e-03</internalNodes>
          <leafValues>
            1.2611193954944611e-01 -8.5346257686614990e-01</leafValues></_></weakClassifiers></_>
    <!-- stage 4 -->
    <_>
      <maxWeakCount>11</maxWeakCount>
      <stageThreshold>-1.5359736680984497e+00</stageThreshold>
      <weakClassifiers>
        <_>
          <internalNodes>
            0 -1 100 -5.0079999491572380e-03</internalNodes>
          <leafValues>
            5.0161814689636230e-01 -7.8185325860977173e-01</leafValues></_>
        <_>
          <internalNodes>
            0 -1 19 6.1773625202476978e-03</internalNodes>
          <leafValues>
            -4.2214089632034302e-01 6.4761739969253540e-01</leafValues></_>
        <_>
          <internalNodes>
            0 -1 82 4.7860320657491684e-02</internalNodes>
          <leafValues>
            -3.4389629960060120e-01 5.2745831012725830e-01</leafValues></_>
        <_>
          <internalNodes>
            0 -1 11 4.4690087437629700e-02</internalNodes>
          <leafValues>
            1.8415625393390656e-01 -7.1295040845870972e-01</leafValues></_>
        <_>
          <internalNodes>
            0 -1 76 6.3588842749595642e-03</internalNodes>
          <leafValues>
            -2.8410634398460388e-01 4.9806025624275208e-01</leafValues></_>
        <_>
          <internalNodes>
            0 -1 77 5.1616406999528408e-03</internalNodes>
          <leafValues>
            -4.3037992715835571e-01 3.3814847469329834e-01</leafValues></_>
        <_>
          <internalNodes>
            0 -1 115 2.7898855041712523e-03</internalNodes>
          <leafValues>
            1.8466082215309143e-01 -8.4088307619094849e-01</leafValues></_>
        <_>
          <internalNodes>
            0 -1 28 2.1972119808197021e-02</internalNodes>
          <leafValues>
            -2.3534704744815826e-01 7.3635655641555786e-01</leafValues></_>
        <_>
          <internalNodes>
            0 -1 3 3.0894589424133301e-01</internalNodes>
          <leafValues>
            -1.9281914830207825e-01 7.2259408235549927e-01</leafValues></_>
        <_>
          <internalNodes>
            0 -1 27 6.4063433092087507e-04</internalNodes>
          <leafValues>
            2.3628865182399750e-01 -6.1752629280090332e-01</leafValues></_>
        <_>
          <internalNodes>
            0 -1 58 -8.6867883801460266e-03</internalNodes>
          <leafValues>
            6.7804175615310669e-01 -1.8268701434135437e-01</leafValues></_></weakClassifiers></_>
    <!-- stage 5 -->
    <_>
      <maxWeakCount>9</maxWeakCount>
      <stageThreshold>-1.7014656066894531e+00</stageThreshold>
      <weakClassifiers>
        <_>
          <internalNodes>
            0 -1 70 1.4292588457465172e-02</internalNodes>
          <leafValues>
            -7.4650514125823975e-01 5.3676468133926392e-01</leafValues></_>
        <_>
          <internalNodes>
            0 -1 95 -5.2168585360050201e-02</internalNodes>
          <leafValues>
            3.7979570031166077e-01 -5.6537574529647827e-01</leafValues></_>
        <_>
          <internalNodes>
            0 -1 13 -2.0930483005940914e-03</internalNodes>
          <leafValues>
            5.0654608011245728e-01 -3.1634795665740967e-01</leafValues></_>
        <_>
          <internalNodes>
            0 -1 46 -1.8875844776630402e-02</internalNodes>
          <leafValues>
            -8.3980631828308105e-01 1.7584694921970367e-01</leafValues></_>
        <_>
          <internalNodes>
            0 -1 44 -5.2688177675008774e-03</internalNodes>
          <leafValues>
            2.9092183709144592e-01 -5.5942648649215698e-01</leafValues></_>
        <_>
          <internalNodes>
            0 -1 36 7.3199793696403503e-03</internalNodes>
          <leafValues>
            1.8483549356460571e-01 -7.1011519432067871e-01</leafValues></_>
        <_>
          <internalNodes>
            0 -1 86 -6.5459217876195908e-03</internalNodes>
          <leafValues>
            7.3955845832824707e-01 -2.5161159038543701e-01</leafValues></_>
        <_>
          <internalNodes>
            0 -1 22 -4.8235476016998291e-02</internalNodes>
          <leafValues>
            -8.4119200706481934e-01 2.3509955406188965e-01</leafValues></_>
        <_>
          <internalNodes>
            0 -1 35 -1.2592859566211700e-03</internalNodes>
          <leafValues>
            -7.0514249801635742e-01 1.4201930165290833e-01</leafValues></_></weakClassifiers></_>
    <!-- stage 6 -->
    <_>
      <maxWeakCount>10</maxWeakCount>
      <stageThreshold>-1.9339441061019897e+00</stageThreshold>
      <weakClassifiers>
        <_>
          <internalNodes>
            0 -1 107 -3.2724926713854074e-03</internalNodes>
          <leafValues>
            3.2867133617401123e-01 -7.8227847814559937e-01</leafValues></_>
        <_>
          <internalNodes>
            0 -1 12 1.0340958833694458e-02</internalNodes>
          <leafValues>
            -5.0555390119552612e-01 4.6156176924705505e-01</leafValues></_>
        <_>
          <internalNodes>
            0 -1 26 7.1306279860436916e-03</internalNodes>
          <leafValues>
            -5.2868008613586426e-01 3.1362658739089966e-01</leafValues></_>
        <_>
          <internalNodes>
            0 -1 57 -5.1022619009017944e-02</internalNodes>
          <leafValues>
            4.1529703140258789e-01 -3.4630912542343140e-01</leafValues></_>
        <_>
          <internalNodes>
            0 -1 114 1.6519093886017799e-02</internalNodes>
          <leafValues>
            2.4050568044185638e-01 -8.1244480609893799e-01</leafValues></_>
        <_>
          <internalNodes>
            0 -1 48 -1.3859793543815613e-03</internalNodes>
          <leafValues>
            2.2810052335262299e-01 -5.0531655550003052e-01</leafValues></_>
        <_>
          <internalNodes>
            0 -1 30 1.5688553452491760e-02</internalNodes>
          <leafValues>
            1.5944492816925049e-01 -7.5756716728210449e-01</leafValues></_>
        <_>
          <internalNodes>
            0 -1 81 -3.4220772795379162e-03</internalNodes>
          <leafValues>
            6.9677174091339111e-01 -1.8802270293235779e-01</leafValues></_>
        <_>
          <internalNodes>
            0 -1 94 8.3899255841970444e-03</internalNodes>
          <leafValues>
            1.5997314453125000e-01 -8.7682414054870605e-01</leafValues></_>
        <_>
          <internalNodes>
            0 -1 62 -7.2462251409888268e-03</internalNodes>
          <leafValues>
            3.1513890624046326e-01 -3.7112402915954590e-01</leafValues></_></weakClassifiers></_>
    <!-- stage 7 -->
    <_>
      <maxWeakCount>10</maxWeakCount>
      <stageThreshold>-1.4845643043518066e+00</stageThreshold>
      <weakClassifiers>
        <_>
          <internalNodes>
            0 -1 69 2.1697472780942917e-02</internalNodes>
          <leafValues>
            -7.2217112779617310e-01 5.0387597084045410e-01</leafValues></_>
        <_>
          <internalNodes>
            0 -1 96 5.8124139904975891e-03</internalNodes>
          <leafValues>
            -4.5279851555824280e-01 4.6820282936096191e-01</leafValues></_>
        <_>
          <internalNodes>
            0 -1 67 9.4407461583614349e-03</internalNodes>
          <leafValues>
            -4.6917590498924255e-01 2.9567706584930420e-01</leafValues></_>
        <_>
          <internalNodes>
            0 -1 14 1.9847207295242697e-04</internalNodes>
          <leafValues>
            1.9800643622875214e-01 -6.4948606491088867e-01</leafValues></_>
        <_>
          <internalNodes>
            0 -1 98 1.9836543651763350e-04</internalNodes>
          <leafValues>
            1.8124786019325256e-01 -6.8656897544860840e-01</leafValues></_>
        <_>
          <internalNodes>
            0 -1 98 -2.0250071247573942e-04</internalNodes>
          <leafValues>
            -6.0530358552932739e-01 2.1931059658527374e-01</leafValues></_>
        <_>
          <internalNodes>
            0 -1 23 1.6195762902498245e-02</internalNodes>
          <leafValues>
            -3.5165172815322876e-01 4.1613733768463135e-01</leafValues></_>
        <_>
          <internalNodes>
            0 -1 39 3.2387888059020042e-03</internalNodes>
          <leafValues>
            1.2173782289028168e-01 -7.9307848215103149e-01</leafValues></_>
        <_>
          <internalNodes>
            0 -1 88 4.4885263778269291e-03</internalNodes>
          <leafValues>
            -2.0335333049297333e-01 7.0541435480117798e-01</leafValues></_>
        <_>
          <internalNodes>
            0 -1 18 4.0725324302911758e-02</internalNodes>
          <leafValues>
            1.8277086317539215e-01 -9.1448408365249634e-01</leafValues></_></weakClassifiers></_>
    <!-- stage 8 -->
    <_>
      <maxWeakCount>10</maxWeakCount>
      <stageThreshold>-1.8116002082824707e+00</stageThreshold>
      <weakClassifiers>
        <_>
          <internalNodes>
            0 -1 40 5.1625706255435944e-03</internalNodes>
          <leafValues>
            -7.3352164030075073e-01 4.3816253542900085e-01</leafValues></_>
        <_>
          <internalNodes>
            0 -1 105 4.7288285568356514e-03</internalNodes>
          <leafValues>
            -5.0272190570831299e-01 4.3332839012145996e-01</leafValues></_>
        <_>
          <internalNodes>
            0 -1 61 4.0638464270159602e-04</internalNodes>
          <leafValues>
            -5.9284412860870361e-01 2.7494391798973083e-01</leafValues></_>
        <_>
          <internalNodes>
            0 -1 66 -2.2520273923873901e-02</internalNodes>
          <leafValues>
            3.6355388164520264e-01 -4.0059340000152588e-01</leafValues></_>
        <_>
          <internalNodes>
            0 -1 106 -9.4376131892204285e-03</internalNodes>
          <leafValues>
            -7.6814603805541992e-01 2.1486267447471619e-01</leafValues></_>
        <_>
          <internalNodes>
            0 -1 108 1.5301930252462626e-03</internalNodes>
          <leafValues>
            1.3302820920944214e-01 -7.2215676307678223e-01</leafValues></_>
        <_>
          <internalNodes>
            0 -1 83 -2.6850369758903980e-03</internalNodes>
          <leafValues>
            5.6416684389114380e-01 -2.1437361836433411e-01</leafValues></_>
        <_>
          <internalNodes>
            0 -1 34 4.1301259770989418e-03</internalNodes>
          <leafValues>
            -4.3040117621421814e-01 3.3053094148635864e-01</leafValues></_>
        <_>
          <internalNodes>
            0 -1 65 -3.4028014633804560e-03</internalNodes>
          <leafValues>
            5.5517214536666870e-01 -2.2091941535472870e-01</leafValues></_>
        <_>
          <internalNodes>
            0 -1 78 6.8972329609096050e-04</internalNodes>
          <leafValues>
            1.5734368562698364e-01 -9.2433023452758789e-01</leafValues></_></weakClassifiers></_>
    <!-- stage 9 -->
    <_>
      <maxWeakCount>11</maxWeakCount>
      <stageThreshold>-1.8750238418579102e+00</stageThreshold>
      <weakClassifiers>
        <_>
          <internalNodes>
            0 -1 43 -1.9104570150375366e-02</internalNodes>
          <leafValues>
            3.8622754812240601e-01 -7.7546983957290649e-01</leafValues></_>
        <_>
          <internalNodes>
            0 -1 104 2.4668641388416290e-02</internalNodes>
          <leafValues>
            -4.5102140307426453e-01 4.5063614845275879e-01</leafValues></_>
        <_>
          <internalNodes>
            0 -1 15 -7.2977077215909958e-03</internalNodes>
          <leafValues>
            4.2774862051010132e-01 -3.0662733316421509e-01</leafValues></_>
        <_>
          <internalNodes>
            0 -1 16 1.7725091427564621e-02</internalNodes>
          <leafValues>
            -3.2618221640586853e-01 4.4962662458419800e-01</leafValues></_>
        <_>
          <internalNodes>
            0 -1 55 -2.6805754750967026e-03</internalNodes>
          <leafValues>
            3.6107078194618225e-01 -3.5849836468696594e-01</leafValues></_>
        <_>
          <internalNodes>
            0 -1 116 -1.3000385370105505e-03</internalNodes>
          <leafValues>
            -7.3964005708694458e-01 2.0391038060188293e-01</leafValues></_>
        <_>
          <internalNodes>
            0 -1 99 2.1808117628097534e-02</internalNodes>
          <leafValues>
            -2.5902250409126282e-01 6.5406799316406250e-01</leafValues></_>
        <_>
          <internalNodes>
            0 -1 37 -5.3195143118500710e-03</internalNodes>
          <leafValues>
            2.8030744194984436e-01 -4.4592180848121643e-01</leafValues></_>
        <_>
          <internalNodes>
            0 -1 71 5.6378068402409554e-03</internalNodes>
          <leafValues>
            -1.7930071055889130e-01 6.3701903820037842e-01</leafValues></_>
        <_>
          <internalNodes>
            0 -1 49 -3.5445480607450008e-03</internalNodes>
          <leafValues>
            7.3710805177688599e-01 -1.2883131206035614e-01</leafValues></_>
        <_>
          <internalNodes>
            0 -1 52 -1.1731163598597050e-02</internalNodes>
          <leafValues>
            4.2571204900741577e-01 -2.5693124532699585e-01</leafValues></_></weakClassifiers></_>
    <!-- stage 10 -->
    <_>
      <maxWeakCount>11</maxWeakCount>
      <stageThreshold>-1.6656353473663330e+00</stageThreshold>
      <weakClassifiers>
        <_>
          <internalNodes>
            0 -1 31 3.1463997438549995e-03</internalNodes>
          <leafValues>
            -7.2646182775497437e-01 2.3214285075664520e-01</leafValues></_>
        <_>
          <internalNodes>
            0 -1 103 -2.4970807135105133e-02</internalNodes>
          <leafValues>
            2.6415994763374329e-01 -5.4064232110977173e-01</leafValues></_>
        <_>
          <internalNodes>
            0 -1 85 3.2704941928386688e-02</internalNodes>
          <leafValues>
            -2.6469069719314575e-01 5.4333811998367310e-01</leafValues></_>
        <_>
          <internalNodes>
            0 -1 38 -2.6413677260279655e-02</internalNodes>
          <leafValues>
            -8.3585381507873535e-01 1.4669397473335266e-01</leafValues></_>
        <_>
          <internalNodes>
            0 -1 4 1.9710687920451164e-03</internalNodes>
          <leafValues>
            1.7640362679958344e-01 -6.5506786108016968e-01</leafValues></_>
        <_>
          <internalNodes>
            0 -1 7 1.6168586909770966e-02</internalNodes>
          <leafValues>
            1.1910859495401382e-01 -7.2059810161590576e-01</leafValues></_>
        <_>
          <internalNodes>
            0 -1 93 1.7277788138017058e-03</internalNodes>
          <leafValues>
            -1.8581774830818176e-01 6.3363921642303467e-01</leafValues></_>
        <_>
          <internalNodes>
            0 -1 2 1.4759685099124908e-01</internalNodes>
          <leafValues>
            -2.4961879849433899e-01 4.7274902462959290e-01</leafValues></_>
        <_>
          <internalNodes>
            0 -1 5 -5.1124278455972672e-02</internalNodes>
          <leafValues>
            6.3236951828002930e-01 -1.9759784638881683e-01</leafValues></_>
        <_>
          <internalNodes>
            0 -1 111 1.8366595031693578e-04</internalNodes>
          <leafValues>
            -4.2064851522445679e-01 2.9530134797096252e-01</leafValues></_>
        <_>
          <internalNodes>
            0 -1 63 -9.1453026980161667e-03</internalNodes>
          <leafValues>
            4.5935362577438354e-01 -2.3831371963024139e-01</leafValues></_></weakClassifiers></_>
    <!-- stage 11 -->
    <_>
      <maxWeakCount>13</maxWeakCount>
      <stageThreshold>-1.7557506561279297e+00</stageThreshold>
      <weakClassifiers>
        <_>
          <internalNodes>
            0 -1 110 -3.1752567738294601e-03</internalNodes>
          <leafValues>
            1.2035010755062103e-01 -7.9954952001571655e-01</leafValues></_>
        <_>
          <internalNodes>
            0 -1 17 1.8494708929210901e-03</internalNodes>
          <leafValues>
            -4.6455854177474976e-01 4.0897360444068909e-01</leafValues></_>
        <_>
          <internalNodes>
            0 -1 47 -1.8418822437524796e-02</internalNodes>
          <leafValues>
            -6.7605024576187134e-01 1.8408219516277313e-01</leafValues></_>
        <_>
          <internalNodes>
            0 -1 25 1.7155369278043509e-03</internalNodes>
          <leafValues>
            1.3978755474090576e-01 -8.1946188211441040e-01</leafValues></_>
        <_>
          <internalNodes>
            0 -1 50 3.8784933276474476e-03</internalNodes>
          <leafValues>
            -2.6518324017524719e-01 4.4408905506134033e-01</leafValues></_>
        <_>
          <internalNodes>
            0 -1 21 1.1649623513221741e-01</internalNodes>
          <leafValues>
            -2.0122985541820526e-01 5.0898104906082153e-01</leafValues></_>
        <_>
          <internalNodes>
            0 -1 8 2.1757623180747032e-02</internalNodes>
          <leafValues>
            -2.7983722090721130e-01 4.0996354818344116e-01</leafValues></_>
        <_>
          <internalNodes>
            0 -1 73 -2.9290032107383013e-03</internalNodes>
          <leafValues>
            5.9852087497711182e-01 -1.8013118207454681e-01</leafValues></_>
        <_>
          <internalNodes>
            0 -1 68 1.6262768767774105e-03</internalNodes>
          <leafValues>
            1.4486519992351532e-01 -7.4008017778396606e-01</leafValues></_>
        <_>
          <internalNodes>
            0 -1 79 -4.6901507303118706e-03</internalNodes>
          <leafValues>
            4.4834858179092407e-01 -2.5840845704078674e-01</leafValues></_>
        <_>
          <internalNodes>
            0 -1 109 -6.4508657669648528e-04</internalNodes>
          <leafValues>
            -6.2897449731826782e-01 1.8647792935371399e-01</leafValues></_>
        <_>
          <internalNodes>
            0 -1 92 7.2232522070407867e-03</internalNodes>
          <leafValues>
            -3.3413854241371155e-01 3.2064095139503479e-01</leafValues></_>
        <_>
          <internalNodes>
            0 -1 90 -2.3383591324090958e-02</internalNodes>
          <leafValues>
            8.0446285009384155e-01 -1.4299330115318298e-01</leafValues></_></weakClassifiers></_></stages>
  <features>
    <_>
      <rects>
        <_>
          0 0 21 23 -1.</_>
        <_>
          7 0 7 23 3.</_></rects>
      <tilted>0</tilted></_>
    <_>
      <rects>
        <_>
          0 2 10 18 -1.</_>
        <_>
          5 2 5 18 2.</_></rects>
      <tilted>0</tilted></_>
    <_>
      <rects>
        <_>
          0 3 16 17 -1.</_>
        <_>
          8 3 8 17 2.</_></rects>
      <tilted>0</tilted></_>
    <_>
      <rects>
        <_>
          0 4 24 9 -1.</_>
        <_>
          8 4 8 9 3.</_></rects>
      <tilted>0</tilted></_>
    <_>
      <rects>
        <_>
          1 0 4 4 -1.</_>
        <_>
          1 0 2 2 2.</_>
        <_>
          3 2 2 2 2.</_></rects>
      <tilted>0</tilted></_>
    <_>
      <rects>
        <_>
          1 3 10 12 -1.</_>
        <_>
          6 3 5 12 2.</_></rects>
      <tilted>0</tilted></_>
    <_>
      <rects>
        <_>
          1 11 8 9 -1.</_>
        <_>
          5 11 4 9 2.</_></rects>
      <tilted>0</tilted></_>
    <_>
      <rects>
        <_>
          1 17 22 2 -1.</_>
        <_>
          12 17 11 2 2.</_></rects>
      <tilted>0</tilted></_>
    <_>
      <rects>
        <_>
          1 17 13 6 -1.</_>
        <_>
          1 19 13 2 3.</_></rects>
      <tilted>0</tilted></_>
    <_>
      <rects>
        <_>
          2 6 8 7 -1.</_>
        <_>
          6 6 4 7 2.</_></rects>
      <tilted>0</tilted></_>
    <_>
      <rects>
        <_>
          2 6 21 5 -1.</_>
        <_>
          9 6 7 5 3.</_></rects>
      <tilted>0</tilted></_>
    <_>
      <rects>
        <_>
          2 12 20 10 -1.</_>
        <_>
          12 12 10 10 2.</_></rects>
      <tilted>0</tilted></_>
    <_>
      <rects>
        <_>
          2 16 4 5 -1.</_>
        <_>
          4 16 2 5 2.</_></rects>
      <tilted>0</tilted></_>
    <_>
      <rects>
        <_>
          2 17 3 2 -1.</_>
        <_>
          3 17 1 2 3.</_></rects>
      <tilted>0</tilted></_>
    <_>
      <rects>
        <_>
          2 18 1 2 -1.</_>
        <_>
          2 19 1 1 2.</_></rects>
      <tilted>0</tilted></_>
    <_>
      <rects>
        <_>
          2 20 14 3 -1.</_>
        <_>
          2 21 14 1 3.</_></rects>
      <tilted>0</tilted></_>
    <_>
      <rects>
        <_>
          3 8 4 11 -1.</_>
        <_>
          5 8 2 11 2.</_></rects>
      <tilted>0</tilted></_>
    <_>
      <rects>
        <_>
          3 15 2 4 -1.</_>
        <_>
          3 15 1 2 2.</_>
        <_>
          4 17 1 2 2.</_></rects>
      <tilted>0</tilted></_>
    <_>
      <rects>
        <_>
          4 5 6 12 -1.</_>
        <_>
          4 9 6 4 3.</_></rects>
      <tilted>0</tilted></_>
    <_>
      <rects>
        <_>
          4 11 2 8 -1.</_>
        <_>
          4 11 1 4 2.</_>
        <_>
          5 15 1 4 2.</_></rects>
      <tilted>0</tilted></_>
    <_>
      <rects>
        <_>
          4 18 12 6 -1.</_>
        <_>
          4 21 12 3 2.</_></rects>
      <tilted>0</tilted></_>
    <_>
      <rects>
        <_>
          5 0 15 9 -1.</_>
        <_>
          10 0 5 9 3.</_></rects>
      <tilted>0</tilted></_>
    <_>
      <rects>
        <_>
          5 9 16 14 -1.</_>
        <_>
          5 9 8 7 2.</_>
        <_>
          13 16 8 7 2.</_></rects>
      <tilted>0</tilted></_>
    <_>
      <rects>
        <_>
          5 12 6 5 -1.</_>
        <_>
          7 12 2 5 3.</_></rects>
      <tilted>0</tilted></_>
    <_>
      <rects>
        <_>
          5 12 6 9 -1.</_>
        <_>
          7 12 2 9 3.</_></rects>
      <tilted>0</tilted></_>
    <_>
      <rects>
        <_>
          5 12 3 3 -1.</_>
        <_>
          5 13 3 1 3.</_></rects>
      <tilted>0</tilted></_>
    <_>
      <rects>
        <_>
          5 13 6 6 -1.</_>
        <_>
          7 13 2 6 3.</_></rects>
      <tilted>0</tilted></_>
    <_>
      <rects>
        <_>
          5 13 3 3 -1.</_>
        <_>
          5 14 3 1 3.</_></rects>
      <tilted>0</tilted></_>
    <_>
      <rects>
        <_>
          5 19 15 3 -1.</_>
        <_>
          5 20 15 1 3.</_></rects>
      <tilted>0</tilted></_>
    <_>
      <rects>
        <_>
          5 20 15 3 -1.</_>
        <_>
          5 21 15 1 3.</_></rects>
      <tilted>0</tilted></_>
    <_>
      <rects>
        <_>
          6 3 14 6 -1.</_>
        <_>
          6 5 14 2 3.</_></rects>
      <tilted>0</tilted></_>
    <_>
      <rects>
        <_>
          6 10 2 4 -1.</_>
        <_>
          6 10 1 2 2.</_>
        <_>
          7 12 1 2 2.</_></rects>
      <tilted>0</tilted></_>
    <_>
      <rects>
        <_>
          6 11 2 3 -1.</_>
        <_>
          6 12 2 1 3.</_></rects>
      <tilted>0</tilted></_>
    <_>
      <rects>
        <_>
          6 11 9 1 -1.</_>
        <_>
          9 11 3 1 3.</_></rects>
      <tilted>0</tilted></_>
    <_>
      <rects>
        <_>
          6 13 12 6 -1.</_>
        <_>
          6 16 12 3 2.</_></rects>
      <tilted>0</tilted></_>
    <_>
      <rects>
        <_>
          6 20 6 1 -1.</_>
        <_>
          8 20 2 1 3.</_></rects>
      <tilted>0</tilted></_>
    <_>
      <rects>
        <_>
          6 21 15 2 -1.</_>
        <_>
          11 21 5 2 3.</_></rects>
      <tilted>0</tilted></_>
    <_>
      <rects>
        <_>
          7 0 8 9 -1.</_>
        <_>
          7 3 8 3 3.</_></rects>
      <tilted>0</tilted></_>
    <_>
      <rects>
        <_>
          7 2 11 6 -1.</_>
        <_>
          7 4 11 2 3.</_></rects>
      <tilted>0</tilted></_>
    <_>
      <rects>
        <_>
          7 5 8 3 -1.</_>
        <_>
          7 6 8 1 3.</_></rects>
      <tilted>0</tilted></_>
    <_>
      <rects>
        <_>
          7 7 2 6 -1.</_>
        <_>
          7 7 1 3 2.</_>
        <_>
          8 10 1 3 2.</_></rects>
      <tilted>0</tilted></_>
    <_>
      <rects>
        <_>
          7 8 3 2 -1.</_>
        <_>
          8 8 1 2 3.</_></rects>
      <tilted>0</tilted></_>
    <_>
      <rects>
        <_>
          7 8 6 10 -1.</_>
        <_>
          7 8 3 5 2.</_>
        <_>
          10 13 3 5 2.</_></rects>
      <tilted>0</tilted></_>
    <_>
      <rects>
        <_>
          7 9 4 8 -1.</_>
        <_>
          7 9 2 4 2.</_>
        <_>
          9 13 2 4 2.</_></rects>
      <tilted>0</tilted></_>
    <_>
      <rects>
        <_>
          7 13 6 8 -1.</_>
        <_>
          10 13 3 8 2.</_></rects>
      <tilted>0</tilted></_>
    <_>
      <rects>
        <_>
          7 17 13 6 -1.</_>
        <_>
          7 19 13 2 3.</_></rects>
      <tilted>0</tilted></_>
    <_>
      <rects>
        <_>
          7 19 12 3 -1.</_>
        <_>
          11 19 4 3 3.</_></rects>
      <tilted>0</tilted></_>
    <_>
      <rects>
        <_>
          7 19 15 5 -1.</_>
        <_>
          12 19 5 5 3.</_></rects>
      <tilted>0</tilted></_>
    <_>
      <rects>
        <_>
          8 0 9 6 -1.</_>
        <_>
          8 2 9 2 3.</_></rects>
      <tilted>0</tilted></_>
    <_>
      <rects>
        <_>
          8 4 2 6 -1.</_>
        <_>
          8 4 1 3 2.</_>
        <_>
          9 7 1 3 2.</_></rects>
      <tilted>0</tilted></_>
    <_>
      <rects>
        <_>
          8 5 2 6 -1.</_>
        <_>
          8 5 1 3 2.</_>
        <_>
          9 8 1 3 2.</_></rects>
      <tilted>0</tilted></_>
    <_>
      <rects>
        <_>
          8 5 8 2 -1.</_>
        <_>
          8 6 8 1 2.</_></rects>
      <tilted>0</tilted></_>
    <_>
      <rects>
        <_>
          8 6 4 8 -1.</_>
        <_>
          8 6 2 4 2.</_>
        <_>
          10 10 2 4 2.</_></rects>
      <tilted>0</tilted></_>
    <_>
      <rects>
        <_>
          8 7 4 10 -1.</_>
        <_>
          8 7 2 5 2.</_>
        <_>
          10 12 2 5 2.</_></rects>
      <tilted>0</tilted></_>
    <_>
      <rects>
        <_>
          8 7 16 5 -1.</_>
        <_>
          16 7 8 5 2.</_></rects>
      <tilted>0</tilted></_>
    <_>
      <rects>
        <_>
          8 9 2 12 -1.</_>
        <_>
          8 9 1 6 2.</_>
        <_>
          9 15 1 6 2.</_></rects>
      <tilted>0</tilted></_>
    <_>
      <rects>
        <_>
          8 16 12 8 -1.</_>
        <_>
          8 20 12 4 2.</_></rects>
      <tilted>0</tilted></_>
    <_>
      <rects>
        <_>
          8 18 14 6 -1.</_>
        <_>
          8 21 14 3 2.</_></rects>
      <tilted>0</tilted></_>
    <_>
      <rects>
        <_>
          8 19 9 3 -1.</_>
        <_>
          8 20 9 1 3.</_></rects>
      <tilted>0</tilted></_>
    <_>
      <rects>
        <_>
          8 20 6 1 -1.</_>
        <_>
          10 20 2 1 3.</_></rects>
      <tilted>0</tilted></_>
    <_>
      <rects>
        <_>
          8 21 6 1 -1.</_>
        <_>
          10 21 2 1 3.</_></rects>
      <tilted>0</tilted></_>
    <_>
      <rects>
        <_>
          9 4 7 2 -1.</_>
        <_>
          9 5 7 1 2.</_></rects>
      <tilted>0</tilted></_>
    <_>
      <rects>
        <_>
          9 13 6 5 -1.</_>
        <_>
          11 13 2 5 3.</_></rects>
      <tilted>0</tilted></_>
    <_>
      <rects>
        <_>
          9 15 6 2 -1.</_>
        <_>
          11 15 2 2 3.</_></rects>
      <tilted>0</tilted></_>
    <_>
      <rects>
        <_>
          9 17 6 6 -1.</_>
        <_>
          9 19 6 2 3.</_></rects>
      <tilted>0</tilted></_>
    <_>
      <rects>
        <_>
          9 18 4 3 -1.</_>
        <_>
          9 19 4 1 3.</_></rects>
      <tilted>0</tilted></_>
    <_>
      <rects>
        <_>
          9 18 8 6 -1.</_>
        <_>
          9 21 8 3 2.</_></rects>
      <tilted>0</tilted></_>
    <_>
      <rects>
        <_>
          10 3 11 6 -1.</_>
        <_>
          10 6 11 3 2.</_></rects>
      <tilted>0</tilted></_>
    <_>
      <rects>
        <_>
          10 4 5 3 -1.</_>
        <_>
          10 5 5 1 3.</_></rects>
      <tilted>0</tilted></_>
    <_>
      <rects>
        <_>
          10 5 6 3 -1.</_>
        <_>
          12 5 2 3 3.</_></rects>
      <tilted>0</tilted></_>
    <_>
      <rects>
        <_>
          10 6 6 2 -1.</_>
        <_>
          12 6 2 2 3.</_></rects>
      <tilted>0</tilted></_>
    <_>
      <rects>
        <_>
          10 11 3 7 -1.</_>
        <_>
          11 11 1 7 3.</_></rects>
      <tilted>0</tilted></_>
    <_>
      <rects>
        <_>
          10 13 8 8 -1.</_>
        <_>
          10 13 4 4 2.</_>
        <_>
          14 17 4 4 2.</_></rects>
      <tilted>0</tilted></_>
    <_>
      <rects>
        <_>
          10 18 3 3 -1.</_>
        <_>
          10 19 3 1 3.</_></rects>
      <tilted>0</tilted></_>
    <_>
      <rects>
        <_>
          10 18 6 3 -1.</_>
        <_>
          10 19 6 1 3.</_></rects>
      <tilted>0</tilted></_>
    <_>
      <rects>
        <_>
          10 20 3 1 -1.</_>
        <_>
          11 20 1 1 3.</_></rects>
      <tilted>0</tilted></_>
    <_>
      <rects>
        <_>
          11 2 1 8 -1.</_>
        <_>
          11 6 1 4 2.</_></rects>
      <tilted>0</tilted></_>
    <_>
      <rects>
        <_>
          11 12 9 6 -1.</_>
        <_>
          11 15 9 3 2.</_></rects>
      <tilted>0</tilted></_>
    <_>
      <rects>
        <_>
          11 20 2 1 -1.</_>
        <_>
          12 20 1 1 2.</_></rects>
      <tilted>0</tilted></_>
    <_>
      <rects>
        <_>
          12 4 2 8 -1.</_>
        <_>
          12 4 1 4 2.</_>
        <_>
          13 8 1 4 2.</_></rects>
      <tilted>0</tilted></_>
    <_>
      <rects>
        <_>
          12 5 6 12 -1.</_>
        <_>
          12 5 3 6 2.</_>
        <_>
          15 11 3 6 2.</_></rects>
      <tilted>0</tilted></_>
    <_>
      <rects>
        <_>
          12 9 2 2 -1.</_>
        <_>
          13 9 1 2 2.</_></rects>
      <tilted>0</tilted></_>
    <_>
      <rects>
        <_>
          12 14 12 5 -1.</_>
        <_>
          16 14 4 5 3.</_></rects>
      <tilted>0</tilted></_>
    <_>
      <rects>
        <_>
          12 17 4 3 -1.</_>
        <_>
          12 18 4 1 3.</_></rects>
      <tilted>0</tilted></_>
    <_>
      <rects>
        <_>
          12 21 4 2 -1.</_>
        <_>
          14 21 2 2 2.</_></rects>
      <tilted>0</tilted></_>
    <_>
      <rects>
        <_>
          13 4 4 12 -1.</_>
        <_>
          13 4 2 6 2.</_>
        <_>
          15 10 2 6 2.</_></rects>
      <tilted>0</tilted></_>
    <_>
      <rects>
        <_>
          13 5 2 8 -1.</_>
        <_>
          13 5 1 4 2.</_>
        <_>
          14 9 1 4 2.</_></rects>
      <tilted>0</tilted></_>
    <_>
      <rects>
        <_>
          13 6 10 12 -1.</_>
        <_>
          18 6 5 12 2.</_></rects>
      <tilted>0</tilted></_>
    <_>
      <rects>
        <_>
          13 13 3 4 -1.</_>
        <_>
          14 13 1 4 3.</_></rects>
      <tilted>0</tilted></_>
    <_>
      <rects>
        <_>
          13 22 4 1 -1.</_>
        <_>
          15 22 2 1 2.</_></rects>
      <tilted>0</tilted></_>
    <_>
      <rects>
        <_>
          14 5 4 14 -1.</_>
        <_>
          14 5 2 7 2.</_>
        <_>
          16 12 2 7 2.</_></rects>
      <tilted>0</tilted></_>
    <_>
      <rects>
        <_>
          14 8 4 10 -1.</_>
        <_>
          14 8 2 5 2.</_>
        <_>
          16 13 2 5 2.</_></rects>
      <tilted>0</tilted></_>
    <_>
      <rects>
        <_>
          14 9 4 6 -1.</_>
        <_>
          14 9 2 3 2.</_>
        <_>
          16 12 2 3 2.</_></rects>
      <tilted>0</tilted></_>
    <_>
      <rects>
        <_>
          14 15 3 1 -1.</_>
        <_>
          15 15 1 1 3.</_></rects>
      <tilted>0</tilted></_>
    <_>
      <rects>
        <_>
          15 5 4 6 -1.</_>
        <_>
          15 7 4 2 3.</_></rects>
      <tilted>0</tilted></_>
    <_>
      <rects>
        <_>
          15 10 8 10 -1.</_>
        <_>
          19 10 4 10 2.</_></rects>
      <tilted>0</tilted></_>
    <_>
      <rects>
        <_>
          15 16 6 1 -1.</_>
        <_>
          17 16 2 1 3.</_></rects>
      <tilted>0</tilted></_>
    <_>
      <rects>
        <_>
          15 21 2 1 -1.</_>
        <_>
          16 21 1 1 2.</_></rects>
      <tilted>0</tilted></_>
    <_>
      <rects>
        <_>
          15 22 2 1 -1.</_>
        <_>
          16 22 1 1 2.</_></rects>
      <tilted>0</tilted></_>
    <_>
      <rects>
        <_>
          16 8 6 12 -1.</_>
        <_>
          16 8 3 6 2.</_>
        <_>
          19 14 3 6 2.</_></rects>
      <tilted>0</tilted></_>
    <_>
      <rects>
        <_>
          16 10 2 4 -1.</_>
        <_>
          17 10 1 4 2.</_></rects>
      <tilted>0</tilted></_>
    <_>
      <rects>
        <_>
          16 11 4 5 -1.</_>
        <_>
          18 11 2 5 2.</_></rects>
      <tilted>0</tilted></_>
    <_>
      <rects>
        <_>
          16 13 6 5 -1.</_>
        <_>
          19 13 3 5 2.</_></rects>
      <tilted>0</tilted></_>
    <_>
      <rects>
        <_>
          16 16 6 8 -1.</_>
        <_>
          16 20 6 4 2.</_></rects>
      <tilted>0</tilted></_>
    <_>
      <rects>
        <_>
          17 9 1 15 -1.</_>
        <_>
          17 14 1 5 3.</_></rects>
      <tilted>0</tilted></_>
    <_>
      <rects>
        <_>
          17 12 2 8 -1.</_>
        <_>
          17 12 1 4 2.</_>
        <_>
          18 16 1 4 2.</_></rects>
      <tilted>0</tilted></_>
    <_>
      <rects>
        <_>
          17 12 7 6 -1.</_>
        <_>
          17 14 7 2 3.</_></rects>
      <tilted>0</tilted></_>
    <_>
      <rects>
        <_>
          17 13 2 2 -1.</_>
        <_>
          18 13 1 2 2.</_></rects>
      <tilted>0</tilted></_>
    <_>
      <rects>
        <_>
          17 14 4 3 -1.</_>
        <_>
          17 15 4 1 3.</_></rects>
      <tilted>0</tilted></_>
    <_>
      <rects>
        <_>
          17 21 3 2 -1.</_>
        <_>
          18 21 1 2 3.</_></rects>
      <tilted>0</tilted></_>
    <_>
      <rects>
        <_>
          18 11 2 6 -1.</_>
        <_>
          18 11 1 3 2.</_>
        <_>
          19 14 1 3 2.</_></rects>
      <tilted>0</tilted></_>
    <_>
      <rects>
        <_>
          18 18 3 3 -1.</_>
        <_>
          19 18 1 3 3.</_></rects>
      <tilted>0</tilted></_>
    <_>
      <rects>
        <_>
          18 21 2 1 -1.</_>
        <_>
          19 21 1 1 2.</_></rects>
      <tilted>0</tilted></_>
    <_>
      <rects>
        <_>
          19 16 2 4 -1.</_>
        <_>
          20 16 1 4 2.</_></rects>
      <tilted>0</tilted></_>
    <_>
      <rects>
        <_>
          20 12 4 9 -1.</_>
        <_>
          20 15 4 3 3.</_></rects>
      <tilted>0</tilted></_>
    <_>
      <rects>
        <_>
          21 16 1 6 -1.</_>
        <_>
          21 19 1 3 2.</_></rects>
      <tilted>0</tilted></_>
    <_>
      <rects>
        <_>
          21 19 2 2 -1.</_>
        <_>
          21 20 2 1 2.</_></rects>
      <tilted>0</tilted></_></features></cascade>
</opencv_storage>
